~o
<STREAMINFO> 1 13
<VECSIZE> 13<NULLD><MFCC_0><DIAGC>
~h "cough"
<BEGINHMM>
<NUMSTATES> 10
<STATE> 2
<MEAN> 13
 -7.112789e+00 5.894105e-01 -2.439176e+00 -2.457097e+00 -1.025902e+00 -1.758469e+00 -1.682710e+00 -6.386647e-01 -1.868413e-01 -2.433055e-01 -5.209904e-01 2.365953e-02 5.782228e+01
<VARIANCE> 13
 3.283762e+01 3.123653e+01 6.369918e+01 5.320794e+01 4.122773e+01 5.655535e+01 4.548189e+01 4.816327e+01 3.248371e+01 2.998739e+01 2.459760e+01 2.142587e+01 1.389950e+02
<GCONST> 7.248339e+01
<STATE> 3
<MEAN> 13
 -7.066058e+00 -1.891632e+00 -3.041055e+00 -3.293452e+00 -3.316924e+00 -1.612992e+00 -6.919881e-01 -1.520155e+00 -1.125057e+00 -1.200060e+00 -1.774273e-01 -7.285488e-01 7.525616e+01
<VARIANCE> 13
 1.477383e+01 3.104202e+01 4.848508e+01 6.499190e+01 5.048251e+01 5.076908e+01 4.811838e+01 4.926732e+01 4.238715e+01 3.582635e+01 3.017524e+01 2.399601e+01 1.467860e+01
<GCONST> 7.029279e+01
<STATE> 4
<MEAN> 13
 -7.326937e+00 -5.195417e-01 -2.117398e+00 -4.381343e-01 -3.517828e+00 -2.940411e+00 -3.783967e+00 -2.953157e+00 -5.949106e-01 8.537333e-01 1.003619e-01 2.826210e-02 6.969516e+01
<VARIANCE> 13
 1.350224e+01 2.174302e+01 4.959009e+01 3.923250e+01 5.196550e+01 6.008591e+01 5.062896e+01 4.907404e+01 4.174020e+01 3.720008e+01 3.050386e+01 2.254382e+01 9.119143e+00
<GCONST> 6.910352e+01
<STATE> 5
<MEAN> 13
 -9.296315e+00 -2.752227e+00 -2.168106e+00 -1.036435e+00 -2.185765e-01 -1.032244e+00 -8.544700e-01 -1.734786e+00 -5.661196e-01 -7.933909e-01 -7.121125e-01 -3.955632e-01 6.538057e+01
<VARIANCE> 13
 1.500844e+01 3.089045e+01 3.270457e+01 7.282481e+01 4.359076e+01 4.261481e+01 4.203013e+01 4.945803e+01 3.407100e+01 2.744198e+01 2.483846e+01 1.938946e+01 1.459921e+01
<GCONST> 6.867220e+01
<STATE> 6
<MEAN> 13
 -9.621700e+00 -6.979118e+00 -4.237313e+00 -2.584247e+00 -2.782374e+00 -7.885945e-01 1.398745e+00 -1.560593e+00 -1.423441e+00 -2.992556e-01 1.310159e+00 -9.020416e-01 6.502705e+01
<VARIANCE> 13
 2.022781e+01 2.584770e+01 6.787931e+01 7.018390e+01 1.092582e+02 1.170697e+02 9.215772e+01 1.051001e+02 7.651053e+01 6.420695e+01 6.708362e+01 4.862643e+01 2.540814e+01
<GCONST> 7.708015e+01
<STATE> 7
<MEAN> 13
 -3.839112e+00 -2.182407e+00 1.843781e-01 1.671284e+00 -2.419405e+00 -2.465206e+00 -3.263516e+00 -4.464425e+00 -5.728984e+00 -4.937286e+00 -3.211982e+00 -1.838986e+00 6.702781e+01
<VARIANCE> 13
 2.017759e+01 3.104640e+01 4.466745e+01 6.087536e+01 7.297739e+01 8.543642e+01 9.627232e+01 1.001314e+02 1.094643e+02 8.580643e+01 6.266274e+01 4.533463e+01 3.741357e+01
<GCONST> 7.687368e+01
<STATE> 8
<MEAN> 13
 -6.175438e+00 -5.777742e-01 1.299844e-01 6.760632e-01 -1.227973e+00 -2.518588e+00 -4.798694e-01 -2.989355e+00 9.223549e-01 -1.531689e-01 7.258885e-01 3.193156e-01 5.713869e+01
<VARIANCE> 13
 3.495189e+01 2.666997e+01 5.157613e+01 6.014159e+01 7.038983e+01 7.889588e+01 7.090795e+01 6.547955e+01 5.982167e+01 4.605365e+01 3.628283e+01 3.214329e+01 3.121348e+01
<GCONST> 7.425855e+01
<STATE> 9
<MEAN> 13
 -7.003861e+00 -1.794710e+00 -1.918281e+00 6.766156e-01 -6.978628e-01 -7.761780e-01 -5.971227e-01 -8.337654e-01 -1.006723e+00 -8.480640e-01 -7.394792e-01 -5.794917e-01 5.059367e+01
<VARIANCE> 13
 1.343081e+01 1.645911e+01 2.376076e+01 3.187455e+01 3.117807e+01 3.194452e+01 3.643499e+01 3.043726e+01 2.816772e+01 2.530589e+01 2.042837e+01 1.834116e+01 6.041452e+01
<GCONST> 6.643211e+01
<TRANSP> 10
 0.000000e+00 1.000000e+00 0.000000e+00 0.000000e+00 0.000000e+00 0.000000e+00 0.000000e+00 0.000000e+00 0.000000e+00 0.000000e+00
 0.000000e+00 6.894951e-01 3.105049e-01 0.000000e+00 0.000000e+00 0.000000e+00 0.000000e+00 0.000000e+00 0.000000e+00 0.000000e+00
 0.000000e+00 0.000000e+00 8.630051e-01 1.369949e-01 0.000000e+00 0.000000e+00 0.000000e+00 0.000000e+00 0.000000e+00 0.000000e+00
 0.000000e+00 0.000000e+00 0.000000e+00 8.065896e-01 1.934104e-01 0.000000e+00 0.000000e+00 0.000000e+00 0.000000e+00 0.000000e+00
 0.000000e+00 0.000000e+00 0.000000e+00 0.000000e+00 7.893144e-01 2.106856e-01 0.000000e+00 0.000000e+00 0.000000e+00 0.000000e+00
 0.000000e+00 0.000000e+00 0.000000e+00 0.000000e+00 0.000000e+00 8.062797e-01 1.937204e-01 0.000000e+00 0.000000e+00 0.000000e+00
 0.000000e+00 0.000000e+00 0.000000e+00 0.000000e+00 0.000000e+00 0.000000e+00 7.985609e-01 2.014391e-01 0.000000e+00 0.000000e+00
 0.000000e+00 0.000000e+00 0.000000e+00 0.000000e+00 0.000000e+00 0.000000e+00 0.000000e+00 8.033394e-01 1.966606e-01 0.000000e+00
 0.000000e+00 0.000000e+00 0.000000e+00 0.000000e+00 0.000000e+00 0.000000e+00 0.000000e+00 0.000000e+00 8.486342e-01 1.513657e-01
 0.000000e+00 0.000000e+00 0.000000e+00 0.000000e+00 0.000000e+00 0.000000e+00 0.000000e+00 0.000000e+00 0.000000e+00 0.000000e+00
<ENDHMM>
