~o
<STREAMINFO> 1 13
<VECSIZE> 13<NULLD><MFCC_0><DIAGC>
~h "scream"
<BEGINHMM>
<NUMSTATES> 10
<STATE> 2
<MEAN> 13
 -8.745496e+00 -4.118800e+00 -4.636317e-01 1.095157e+00 -3.760268e-01 1.508094e+00 -5.599369e-01 -3.179160e-01 7.319854e-02 1.078270e+00 -9.352781e-01 2.256632e-02 6.937537e+01
<VARIANCE> 13
 2.737198e+01 7.255741e+00 1.044848e+01 1.480067e+01 1.490789e+01 2.108059e+01 1.223191e+01 1.677035e+01 1.411961e+01 1.163783e+01 1.974071e+01 1.201846e+01 3.357201e+01
<GCONST> 5.938339e+01
<STATE> 3
<MEAN> 13
 1.182058e+00 -1.366636e+01 -7.464696e+00 -5.684559e+00 -1.804714e+00 -2.259336e+00 -5.512162e+00 -1.799523e+00 1.292978e+00 2.166151e+00 5.297734e-01 2.602501e+00 6.656879e+01
<VARIANCE> 13
 2.347642e+01 3.107931e+01 1.285933e+01 1.921237e+01 9.785201e+00 2.225499e+01 1.241178e+01 1.066707e+01 1.446167e+01 1.282007e+01 2.314367e+01 1.328893e+01 3.190297e+01
<GCONST> 6.067767e+01
<STATE> 4
<MEAN> 13
 -1.079480e+01 -3.731281e+00 -7.613423e-01 3.961766e+00 -4.676081e-01 6.549063e-01 8.298362e-01 -3.740681e-01 -9.946824e-01 1.237648e+00 1.566318e+00 1.283077e+00 6.113851e+01
<VARIANCE> 13
 4.350439e+01 1.569917e+01 1.305268e+01 1.915261e+01 8.024797e+00 1.185180e+01 1.225207e+01 1.104943e+01 1.106959e+01 1.658741e+01 8.454606e+00 9.999999e+00 1.160820e+01
<GCONST> 5.750525e+01
<STATE> 5
<MEAN> 13
 -1.954097e+00 -8.614953e+00 -8.396381e+00 -3.984715e-01 5.715484e-01 -2.125576e+00 -5.810831e+00 -2.258601e+00 1.094582e+00 3.735291e+00 3.513495e+00 9.927823e-01 5.536834e+01
<VARIANCE> 13
 1.451193e+01 1.221920e+01 1.856141e+01 2.212549e+01 1.383957e+01 2.157573e+01 1.961935e+01 1.523411e+01 1.465733e+01 9.154734e+00 1.688768e+01 9.580064e+00 5.120885e+00
<GCONST> 5.810616e+01
<STATE> 6
<MEAN> 13
 -4.045194e+00 -3.576937e+00 -4.812555e+00 5.273281e-03 1.669598e+00 1.302223e+00 -4.075976e+00 -4.584147e-01 5.808018e-01 1.309807e+00 -9.223483e-01 -6.310231e-01 5.401391e+01
<VARIANCE> 13
 1.194890e+01 4.042511e+00 1.778691e+01 9.373528e+00 2.164845e+01 2.224350e+01 1.468159e+01 1.696086e+01 1.408294e+01 9.271884e+00 2.026276e+01 1.501507e+01 9.380458e+00
<GCONST> 5.740917e+01
<STATE> 7
<MEAN> 13
 -7.539022e+00 -9.360499e-01 -1.081085e+00 2.980679e+00 1.289279e+00 2.645011e+00 2.815974e+00 9.884160e-01 1.552324e-01 1.522286e+00 7.389535e-01 6.206129e-01 5.531070e+01
<VARIANCE> 13
 7.633042e+00 5.703842e+00 1.238043e+01 9.431639e+00 1.182624e+01 1.300801e+01 2.021407e+01 1.768211e+01 1.216095e+01 1.318993e+01 1.067423e+01 1.005862e+01 5.413013e+00
<GCONST> 5.478379e+01
<STATE> 8
<MEAN> 13
 -5.738823e+00 -1.393027e+00 -2.715861e+00 5.981422e-01 6.608367e-01 3.298752e+00 2.094387e+00 7.364804e-01 -3.092144e-01 -2.557841e+00 -1.759813e+00 -2.439467e-01 5.146214e+01
<VARIANCE> 13
 7.875154e+00 5.660157e+00 7.881610e+00 8.804314e+00 1.011086e+01 1.639885e+01 1.243456e+01 1.010804e+01 1.047730e+01 8.026925e+00 1.284263e+01 9.306237e+00 2.583164e+00
<GCONST> 5.203846e+01
<STATE> 9
<MEAN> 13
 -2.200323e+00 -1.454668e+00 -4.222836e+00 -4.145257e+00 5.121011e-01 2.096042e+00 -1.479780e+00 6.956974e-01 -1.207820e+00 -1.393181e+00 -4.109728e-01 4.016598e-01 4.789458e+01
<VARIANCE> 13
 5.443944e+00 3.918459e+00 5.821850e+00 8.657353e+00 9.009866e+00 1.574319e+01 2.132416e+01 1.246495e+01 1.189136e+01 1.755770e+01 1.188871e+01 1.450774e+01 2.281369e+00
<GCONST> 5.272647e+01
<TRANSP> 10
 0.000000e+00 1.000000e+00 0.000000e+00 0.000000e+00 0.000000e+00 0.000000e+00 0.000000e+00 0.000000e+00 0.000000e+00 0.000000e+00
 0.000000e+00 8.682343e-01 1.317657e-01 0.000000e+00 0.000000e+00 0.000000e+00 0.000000e+00 0.000000e+00 0.000000e+00 0.000000e+00
 0.000000e+00 0.000000e+00 8.439456e-01 1.560544e-01 0.000000e+00 0.000000e+00 0.000000e+00 0.000000e+00 0.000000e+00 0.000000e+00
 0.000000e+00 0.000000e+00 0.000000e+00 8.035278e-01 1.964723e-01 0.000000e+00 0.000000e+00 0.000000e+00 0.000000e+00 0.000000e+00
 0.000000e+00 0.000000e+00 0.000000e+00 0.000000e+00 8.344737e-01 1.655263e-01 0.000000e+00 0.000000e+00 0.000000e+00 0.000000e+00
 0.000000e+00 0.000000e+00 0.000000e+00 0.000000e+00 0.000000e+00 7.011100e-01 2.988900e-01 0.000000e+00 0.000000e+00 0.000000e+00
 0.000000e+00 0.000000e+00 0.000000e+00 0.000000e+00 0.000000e+00 0.000000e+00 8.096631e-01 1.903369e-01 0.000000e+00 0.000000e+00
 0.000000e+00 0.000000e+00 0.000000e+00 0.000000e+00 0.000000e+00 0.000000e+00 0.000000e+00 7.378858e-01 2.621142e-01 0.000000e+00
 0.000000e+00 0.000000e+00 0.000000e+00 0.000000e+00 0.000000e+00 0.000000e+00 0.000000e+00 0.000000e+00 9.071473e-01 9.285270e-02
 0.000000e+00 0.000000e+00 0.000000e+00 0.000000e+00 0.000000e+00 0.000000e+00 0.000000e+00 0.000000e+00 0.000000e+00 0.000000e+00
<ENDHMM>
